digraph Tree {
node [shape=box, style="filled", color="black", fontname="helvetica"] ;
edge [fontname="helvetica"] ;
0 [label="avg_green <= 55.872\ngini = 0.875\nsamples = 4752\nvalue = [461, 411, 420, 790, 495, 500, 921, 318, 436]\nclass = Glass", fillcolor="#fbf8fe"] ;
1 [label="median_red <= 1.25\ngini = 0.857\nsamples = 3741\nvalue = [413, 263, 353, 742, 394, 443, 812, 281, 40]\nclass = Glass", fillcolor="#fcfafe"] ;
0 -> 1 [labeldistance=2.5, labelangle=45, headlabel="True"] ;
2 [label="avg_green <= 16.868\ngini = 0.845\nsamples = 2099\nvalue = [335, 12, 294, 477, 180, 357, 264, 168, 12]\nclass = Cardboard", fillcolor="#f1fdf6"] ;
1 -> 2 ;
3 [label="std_red <= 31.452\ngini = 0.802\nsamples = 945\nvalue = [162, 0, 276, 218, 56, 115, 103, 15, 0]\nclass = Metal", fillcolor="#f3fdef"] ;
2 -> 3 ;
4 [label="median_blue <= 0.75\ngini = 0.796\nsamples = 710\nvalue = [107, 0, 243, 115, 50, 87, 95, 13, 0]\nclass = Metal", fillcolor="#def9d4"] ;
3 -> 4 ;
5 [label="avg_red <= 8.222\ngini = 0.817\nsamples = 428\nvalue = [89, 0, 108, 90, 39, 55, 35, 12, 0]\nclass = Metal", fillcolor="#f7fef4"] ;
4 -> 5 ;
6 [label="gini = 0.489\nsamples = 49\nvalue = [3, 0, 34, 7, 0, 2, 3, 0, 0]\nclass = Metal", fillcolor="#9bee80"] ;
5 -> 6 ;
7 [label="gini = 0.824\nsamples = 379\nvalue = [86, 0, 74, 83, 39, 53, 32, 12, 0]\nclass = Paper", fillcolor="#fffefd"] ;
5 -> 7 ;
8 [label="std_red <= 20.937\ngini = 0.699\nsamples = 282\nvalue = [18, 0, 135, 25, 11, 32, 60, 1, 0]\nclass = Metal", fillcolor="#cbf6bc"] ;
4 -> 8 ;
9 [label="gini = 0.626\nsamples = 31\nvalue = [1, 0, 7, 2, 0, 4, 17, 0, 0]\nclass = Glass", fillcolor="#caadf4"] ;
8 -> 9 ;
10 [label="gini = 0.683\nsamples = 251\nvalue = [17, 0, 128, 23, 11, 28, 43, 1, 0]\nclass = Metal", fillcolor="#c0f4ae"] ;
8 -> 10 ;
11 [label="median_red <= 0.5\ngini = 0.717\nsamples = 235\nvalue = [55, 0, 33, 103, 6, 28, 8, 2, 0]\nclass = Cardboard", fillcolor="#caf8dd"] ;
3 -> 11 ;
12 [label="std_blue <= 33.377\ngini = 0.68\nsamples = 189\nvalue = [45, 0, 26, 92, 5, 14, 5, 2, 0]\nclass = Cardboard", fillcolor="#bef7d6"] ;
11 -> 12 ;
13 [label="gini = 0.796\nsamples = 67\nvalue = [13, 0, 13, 21, 4, 10, 4, 2, 0]\nclass = Cardboard", fillcolor="#e2fbec"] ;
12 -> 13 ;
14 [label="gini = 0.58\nsamples = 122\nvalue = [32, 0, 13, 71, 1, 4, 1, 0, 0]\nclass = Cardboard", fillcolor="#a9f4c8"] ;
12 -> 14 ;
15 [label="avg_blue <= 14.658\ngini = 0.775\nsamples = 46\nvalue = [10, 0, 7, 11, 1, 14, 3, 0, 0]\nclass = Food Organics", fillcolor="#eef2fd"] ;
11 -> 15 ;
16 [label="gini = 0.406\nsamples = 8\nvalue = [1, 0, 1, 0, 0, 6, 0, 0, 0]\nclass = Food Organics", fillcolor="#7290ec"] ;
15 -> 16 ;
17 [label="gini = 0.784\nsamples = 38\nvalue = [9, 0, 6, 11, 1, 8, 3, 0, 0]\nclass = Cardboard", fillcolor="#f1fdf6"] ;
15 -> 17 ;
18 [label="median_blue <= 0.5\ngini = 0.834\nsamples = 1154\nvalue = [173, 12, 18, 259, 124, 242, 161, 153, 12]\nclass = Cardboard", fillcolor="#fbfffd"] ;
2 -> 18 ;
19 [label="avg_red <= 27.749\ngini = 0.812\nsamples = 607\nvalue = [111, 10, 8, 176, 49, 93, 31, 117, 12]\nclass = Cardboard", fillcolor="#e7fcf0"] ;
18 -> 19 ;
20 [label="avg_green <= 21.219\ngini = 0.784\nsamples = 508\nvalue = [105, 0, 8, 164, 25, 77, 26, 102, 1]\nclass = Cardboard", fillcolor="#e2fbed"] ;
19 -> 20 ;
21 [label="gini = 0.775\nsamples = 298\nvalue = [82, 0, 8, 97, 17, 42, 12, 40, 0]\nclass = Cardboard", fillcolor="#f1fdf6"] ;
20 -> 21 ;
22 [label="gini = 0.765\nsamples = 210\nvalue = [23, 0, 0, 67, 8, 35, 14, 62, 1]\nclass = Cardboard", fillcolor="#f8fefb"] ;
20 -> 22 ;
23 [label="avg_blue <= 43.548\ngini = 0.849\nsamples = 99\nvalue = [6, 10, 0, 12, 24, 16, 5, 15, 11]\nclass = Miscellaneous Trash", fillcolor="#ecfbfc"] ;
19 -> 23 ;
24 [label="gini = 0.82\nsamples = 78\nvalue = [6, 3, 0, 12, 22, 15, 5, 13, 2]\nclass = Miscellaneous Trash", fillcolor="#e9fbfc"] ;
23 -> 24 ;
25 [label="gini = 0.685\nsamples = 21\nvalue = [0, 7, 0, 0, 2, 1, 0, 2, 9]\nclass = Plastic", fillcolor="#fbe3e9"] ;
23 -> 25 ;
26 [label="std_blue <= 38.201\ngini = 0.81\nsamples = 547\nvalue = [62, 2, 10, 83, 75, 149, 130, 36, 0]\nclass = Food Organics", fillcolor="#f6f8fe"] ;
18 -> 26 ;
27 [label="std_green <= 32.903\ngini = 0.779\nsamples = 201\nvalue = [6, 1, 2, 29, 46, 35, 67, 15, 0]\nclass = Glass", fillcolor="#eee4fb"] ;
26 -> 27 ;
28 [label="gini = 0.739\nsamples = 82\nvalue = [1, 0, 1, 6, 28, 21, 22, 3, 0]\nclass = Miscellaneous Trash", fillcolor="#ebfbfc"] ;
27 -> 28 ;
29 [label="gini = 0.771\nsamples = 119\nvalue = [5, 1, 1, 23, 18, 14, 45, 12, 0]\nclass = Glass", fillcolor="#e2d2f9"] ;
27 -> 29 ;
30 [label="avg_green <= 24.339\ngini = 0.796\nsamples = 346\nvalue = [56, 1, 8, 54, 29, 114, 63, 21, 0]\nclass = Food Organics", fillcolor="#dbe3fa"] ;
26 -> 30 ;
31 [label="gini = 0.783\nsamples = 184\nvalue = [45, 0, 2, 41, 7, 49, 34, 6, 0]\nclass = Food Organics", fillcolor="#f9fbfe"] ;
30 -> 31 ;
32 [label="gini = 0.767\nsamples = 162\nvalue = [11, 1, 6, 13, 22, 65, 29, 15, 0]\nclass = Food Organics", fillcolor="#c9d5f8"] ;
30 -> 32 ;
33 [label="median_blue <= 6.5\ngini = 0.811\nsamples = 1642\nvalue = [78, 251, 59, 265, 214, 86, 548, 113, 28]\nclass = Glass", fillcolor="#e5d6fa"] ;
1 -> 33 ;
34 [label="std_red <= 52.204\ngini = 0.814\nsamples = 816\nvalue = [42, 36, 41, 170, 121, 52, 259, 73, 22]\nclass = Glass", fillcolor="#eee4fb"] ;
33 -> 34 ;
35 [label="std_red <= 31.826\ngini = 0.745\nsamples = 565\nvalue = [18, 27, 12, 132, 89, 12, 230, 44, 1]\nclass = Glass", fillcolor="#e2d2f9"] ;
34 -> 35 ;
36 [label="std_blue <= 29.352\ngini = 0.609\nsamples = 104\nvalue = [2, 3, 2, 11, 29, 0, 57, 0, 0]\nclass = Glass", fillcolor="#d0b5f5"] ;
35 -> 36 ;
37 [label="gini = 0.452\nsamples = 46\nvalue = [1, 1, 1, 2, 8, 0, 33, 0, 0]\nclass = Glass", fillcolor="#ac7dee"] ;
36 -> 37 ;
38 [label="gini = 0.672\nsamples = 58\nvalue = [1, 2, 1, 9, 21, 0, 24, 0, 0]\nclass = Glass", fillcolor="#f5effd"] ;
36 -> 38 ;
39 [label="median_blue <= 3.5\ngini = 0.759\nsamples = 461\nvalue = [16, 24, 10, 121, 60, 12, 173, 44, 1]\nclass = Glass", fillcolor="#ece1fb"] ;
35 -> 39 ;
40 [label="gini = 0.724\nsamples = 300\nvalue = [2, 2, 2, 83, 41, 7, 120, 43, 0]\nclass = Glass", fillcolor="#eaddfb"] ;
39 -> 40 ;
41 [label="gini = 0.792\nsamples = 161\nvalue = [14, 22, 8, 38, 19, 5, 53, 1, 1]\nclass = Glass", fillcolor="#f0e7fc"] ;
39 -> 41 ;
42 [label="std_blue <= 59.963\ngini = 0.878\nsamples = 251\nvalue = [24, 9, 29, 38, 32, 40, 29, 29, 21]\nclass = Food Organics", fillcolor="#fdfeff"] ;
34 -> 42 ;
43 [label="avg_green <= 29.226\ngini = 0.808\nsamples = 77\nvalue = [6, 1, 3, 13, 22, 8, 3, 19, 2]\nclass = Miscellaneous Trash", fillcolor="#f5fdfe"] ;
42 -> 43 ;
44 [label="gini = 0.694\nsamples = 11\nvalue = [2, 0, 0, 4, 1, 4, 0, 0, 0]\nclass = Cardboard", fillcolor="#ffffff"] ;
43 -> 44 ;
45 [label="gini = 0.785\nsamples = 66\nvalue = [4, 1, 3, 9, 21, 4, 3, 19, 2]\nclass = Miscellaneous Trash", fillcolor="#f7fdfe"] ;
43 -> 45 ;
46 [label="avg_blue <= 35.844\ngini = 0.87\nsamples = 174\nvalue = [18, 8, 26, 25, 10, 32, 26, 10, 19]\nclass = Food Organics", fillcolor="#f7f9fe"] ;
42 -> 46 ;
47 [label="gini = 0.314\nsamples = 11\nvalue = [1, 0, 0, 0, 0, 9, 0, 1, 0]\nclass = Food Organics", fillcolor="#6183ea"] ;
46 -> 47 ;
48 [label="gini = 0.872\nsamples = 163\nvalue = [17, 8, 26, 25, 10, 23, 26, 9, 19]\nclass = Metal", fillcolor="#ffffff"] ;
46 -> 48 ;
49 [label="std_blue <= 64.264\ngini = 0.777\nsamples = 826\nvalue = [36, 215, 18, 95, 93, 34, 289, 40, 6]\nclass = Glass", fillcolor="#f0e7fc"] ;
33 -> 49 ;
50 [label="avg_blue <= 40.356\ngini = 0.763\nsamples = 725\nvalue = [35, 170, 18, 91, 75, 24, 280, 32, 0]\nclass = Glass", fillcolor="#e6d8fa"] ;
49 -> 50 ;
51 [label="median_blue <= 12.5\ngini = 0.779\nsamples = 501\nvalue = [32, 100, 14, 73, 58, 20, 187, 17, 0]\nclass = Glass", fillcolor="#e4d4f9"] ;
50 -> 51 ;
52 [label="gini = 0.771\nsamples = 467\nvalue = [32, 86, 14, 72, 49, 20, 182, 12, 0]\nclass = Glass", fillcolor="#dfcdf8"] ;
51 -> 52 ;
53 [label="gini = 0.716\nsamples = 34\nvalue = [0, 14, 0, 1, 9, 0, 5, 5, 0]\nclass = Textile Trash", fillcolor="#f7fad7"] ;
51 -> 53 ;
54 [label="avg_red <= 39.769\ngini = 0.712\nsamples = 224\nvalue = [3, 70, 4, 18, 17, 4, 93, 15, 0]\nclass = Glass", fillcolor="#ece1fb"] ;
50 -> 54 ;
55 [label="gini = 0.0\nsamples = 5\nvalue = [0, 5, 0, 0, 0, 0, 0, 0, 0]\nclass = Textile Trash", fillcolor="#d7e539"] ;
54 -> 55 ;
56 [label="gini = 0.713\nsamples = 219\nvalue = [3, 65, 4, 18, 17, 4, 93, 15, 0]\nclass = Glass", fillcolor="#e8dbfa"] ;
54 -> 56 ;
57 [label="median_green <= 16.5\ngini = 0.741\nsamples = 101\nvalue = [1, 45, 0, 4, 18, 10, 9, 8, 6]\nclass = Textile Trash", fillcolor="#f2f7bf"] ;
49 -> 57 ;
58 [label="std_green <= 67.727\ngini = 0.671\nsamples = 84\nvalue = [1, 45, 0, 2, 10, 10, 4, 7, 5]\nclass = Textile Trash", fillcolor="#ecf3a1"] ;
57 -> 58 ;
59 [label="gini = 0.541\nsamples = 47\nvalue = [1, 31, 0, 0, 4, 4, 4, 2, 1]\nclass = Textile Trash", fillcolor="#e6ef83"] ;
58 -> 59 ;
60 [label="gini = 0.771\nsamples = 37\nvalue = [0, 14, 0, 2, 6, 6, 0, 5, 4]\nclass = Textile Trash", fillcolor="#f5f8cc"] ;
58 -> 60 ;
61 [label="std_red <= 65.714\ngini = 0.671\nsamples = 17\nvalue = [0, 0, 0, 2, 8, 0, 5, 1, 1]\nclass = Miscellaneous Trash", fillcolor="#cef5f8"] ;
57 -> 61 ;
62 [label="gini = 0.486\nsamples = 12\nvalue = [0, 0, 0, 1, 8, 0, 3, 0, 0]\nclass = Miscellaneous Trash", fillcolor="#91e9f1"] ;
61 -> 62 ;
63 [label="gini = 0.72\nsamples = 5\nvalue = [0, 0, 0, 1, 0, 0, 2, 1, 1]\nclass = Glass", fillcolor="#e0cef8"] ;
61 -> 63 ;
64 [label="median_green <= 10.5\ngini = 0.79\nsamples = 1011\nvalue = [48, 148, 67, 48, 101, 57, 109, 37, 396]\nclass = Plastic", fillcolor="#f8c6d2"] ;
0 -> 64 [labeldistance=2.5, labelangle=-45, headlabel="False"] ;
65 [label="avg_green <= 76.611\ngini = 0.843\nsamples = 561\nvalue = [40, 60, 40, 32, 50, 53, 96, 28, 162]\nclass = Plastic", fillcolor="#fbe3e9"] ;
64 -> 65 ;
66 [label="median_blue <= 0.5\ngini = 0.87\nsamples = 434\nvalue = [40, 43, 36, 32, 42, 50, 92, 27, 72]\nclass = Glass", fillcolor="#f8f4fe"] ;
65 -> 66 ;
67 [label="std_green <= 83.989\ngini = 0.492\nsamples = 22\nvalue = [0, 4, 0, 0, 0, 0, 2, 1, 15]\nclass = Plastic", fillcolor="#ef86a0"] ;
66 -> 67 ;
68 [label="avg_blue <= 56.722\ngini = 0.444\nsamples = 3\nvalue = [0, 0, 0, 0, 0, 0, 2, 0, 1]\nclass = Glass", fillcolor="#c09cf2"] ;
67 -> 68 ;
69 [label="gini = 0.0\nsamples = 1\nvalue = [0, 0, 0, 0, 0, 0, 0, 0, 1]\nclass = Plastic", fillcolor="#e53964"] ;
68 -> 69 ;
70 [label="gini = 0.0\nsamples = 2\nvalue = [0, 0, 0, 0, 0, 0, 2, 0, 0]\nclass = Glass", fillcolor="#8139e5"] ;
68 -> 70 ;
71 [label="std_blue <= 99.339\ngini = 0.41\nsamples = 19\nvalue = [0, 4, 0, 0, 0, 0, 0, 1, 14]\nclass = Plastic", fillcolor="#ee7b98"] ;
67 -> 71 ;
72 [label="gini = 0.364\nsamples = 18\nvalue = [0, 3, 0, 0, 0, 0, 0, 1, 14]\nclass = Plastic", fillcolor="#ec6e8d"] ;
71 -> 72 ;
73 [label="gini = 0.0\nsamples = 1\nvalue = [0, 1, 0, 0, 0, 0, 0, 0, 0]\nclass = Textile Trash", fillcolor="#d7e539"] ;
71 -> 73 ;
74 [label="std_green <= 84.456\ngini = 0.872\nsamples = 412\nvalue = [40, 39, 36, 32, 42, 50, 90, 26, 57]\nclass = Glass", fillcolor="#f3edfd"] ;
66 -> 74 ;
75 [label="avg_green <= 56.107\ngini = 0.824\nsamples = 82\nvalue = [5, 11, 4, 15, 5, 3, 8, 5, 26]\nclass = Plastic", fillcolor="#fbdee6"] ;
74 -> 75 ;
76 [label="gini = 0.0\nsamples = 4\nvalue = [0, 4, 0, 0, 0, 0, 0, 0, 0]\nclass = Textile Trash", fillcolor="#d7e539"] ;
75 -> 76 ;
77 [label="gini = 0.817\nsamples = 78\nvalue = [5, 7, 4, 15, 5, 3, 8, 5, 26]\nclass = Plastic", fillcolor="#fadce4"] ;
75 -> 77 ;
78 [label="median_green <= 3.5\ngini = 0.862\nsamples = 330\nvalue = [35, 28, 32, 17, 37, 47, 82, 21, 31]\nclass = Glass", fillcolor="#efe7fc"] ;
74 -> 78 ;
79 [label="gini = 0.786\nsamples = 61\nvalue = [9, 1, 5, 1, 6, 24, 6, 4, 5]\nclass = Food Organics", fillcolor="#c6d2f8"] ;
78 -> 79 ;
80 [label="gini = 0.853\nsamples = 269\nvalue = [26, 27, 27, 16, 31, 23, 76, 17, 26]\nclass = Glass", fillcolor="#e7dafa"] ;
78 -> 80 ;
81 [label="median_blue <= 9.5\ngini = 0.473\nsamples = 127\nvalue = [0, 17, 4, 0, 8, 3, 4, 1, 90]\nclass = Plastic", fillcolor="#ee7c98"] ;
65 -> 81 ;
82 [label="std_red <= 97.876\ngini = 0.4\nsamples = 116\nvalue = [0, 17, 2, 0, 5, 3, 0, 1, 88]\nclass = Plastic", fillcolor="#ec7190"] ;
81 -> 82 ;
83 [label="median_red <= 7.5\ngini = 0.667\nsamples = 3\nvalue = [0, 1, 0, 0, 0, 1, 0, 1, 0]\nclass = Textile Trash", fillcolor="#ffffff"] ;
82 -> 83 ;
84 [label="gini = 0.0\nsamples = 1\nvalue = [0, 0, 0, 0, 0, 1, 0, 0, 0]\nclass = Food Organics", fillcolor="#3964e5"] ;
83 -> 84 ;
85 [label="gini = 0.5\nsamples = 2\nvalue = [0, 1, 0, 0, 0, 0, 0, 1, 0]\nclass = Textile Trash", fillcolor="#ffffff"] ;
83 -> 85 ;
86 [label="std_green <= 104.167\ngini = 0.371\nsamples = 113\nvalue = [0, 16, 2, 0, 5, 2, 0, 0, 88]\nclass = Plastic", fillcolor="#ec6c8c"] ;
82 -> 86 ;
87 [label="gini = 0.492\nsamples = 63\nvalue = [0, 12, 2, 0, 4, 2, 0, 0, 43]\nclass = Plastic", fillcolor="#ef87a1"] ;
86 -> 87 ;
88 [label="gini = 0.183\nsamples = 50\nvalue = [0, 4, 0, 0, 1, 0, 0, 0, 45]\nclass = Plastic", fillcolor="#e84f75"] ;
86 -> 88 ;
89 [label="median_blue <= 10.5\ngini = 0.727\nsamples = 11\nvalue = [0, 0, 2, 0, 3, 0, 4, 0, 2]\nclass = Glass", fillcolor="#efe6fc"] ;
81 -> 89 ;
90 [label="median_red <= 9.5\ngini = 0.642\nsamples = 9\nvalue = [0, 0, 0, 0, 3, 0, 4, 0, 2]\nclass = Glass", fillcolor="#eadefb"] ;
89 -> 90 ;
91 [label="gini = 0.375\nsamples = 4\nvalue = [0, 0, 0, 0, 3, 0, 1, 0, 0]\nclass = Miscellaneous Trash", fillcolor="#7be4ee"] ;
90 -> 91 ;
92 [label="gini = 0.48\nsamples = 5\nvalue = [0, 0, 0, 0, 0, 0, 3, 0, 2]\nclass = Glass", fillcolor="#d5bdf6"] ;
90 -> 92 ;
93 [label="gini = 0.0\nsamples = 2\nvalue = [0, 0, 2, 0, 0, 0, 0, 0, 0]\nclass = Metal", fillcolor="#64e539"] ;
89 -> 93 ;
94 [label="std_red <= 92.045\ngini = 0.672\nsamples = 450\nvalue = [8, 88, 27, 16, 51, 4, 13, 9, 234]\nclass = Plastic", fillcolor="#f5afc0"] ;
64 -> 94 ;
95 [label="avg_blue <= 62.063\ngini = 0.487\nsamples = 213\nvalue = [1, 29, 3, 3, 22, 0, 6, 1, 148]\nclass = Plastic", fillcolor="#ee7f9b"] ;
94 -> 95 ;
96 [label="median_green <= 13.5\ngini = 0.684\nsamples = 24\nvalue = [0, 9, 0, 0, 6, 0, 0, 1, 8]\nclass = Textile Trash", fillcolor="#fcfdf3"] ;
95 -> 96 ;
97 [label="avg_green <= 57.266\ngini = 0.582\nsamples = 14\nvalue = [0, 4, 0, 0, 1, 0, 0, 1, 8]\nclass = Plastic", fillcolor="#f5b0c1"] ;
96 -> 97 ;
98 [label="gini = 0.0\nsamples = 2\nvalue = [0, 2, 0, 0, 0, 0, 0, 0, 0]\nclass = Textile Trash", fillcolor="#d7e539"] ;
97 -> 98 ;
99 [label="gini = 0.514\nsamples = 12\nvalue = [0, 2, 0, 0, 1, 0, 0, 1, 8]\nclass = Plastic", fillcolor="#ef88a2"] ;
97 -> 99 ;
100 [label="avg_red <= 60.384\ngini = 0.5\nsamples = 10\nvalue = [0, 5, 0, 0, 5, 0, 0, 0, 0]\nclass = Textile Trash", fillcolor="#ffffff"] ;
96 -> 100 ;
101 [label="gini = 0.0\nsamples = 5\nvalue = [0, 0, 0, 0, 5, 0, 0, 0, 0]\nclass = Miscellaneous Trash", fillcolor="#39d7e5"] ;
100 -> 101 ;
102 [label="gini = 0.0\nsamples = 5\nvalue = [0, 5, 0, 0, 0, 0, 0, 0, 0]\nclass = Textile Trash", fillcolor="#d7e539"] ;
100 -> 102 ;
103 [label="std_red <= 79.523\ngini = 0.431\nsamples = 189\nvalue = [1, 20, 3, 3, 16, 0, 6, 0, 140]\nclass = Plastic", fillcolor="#ed7291"] ;
95 -> 103 ;
104 [label="gini = 0.0\nsamples = 1\nvalue = [0, 0, 0, 0, 0, 0, 1, 0, 0]\nclass = Glass", fillcolor="#8139e5"] ;
103 -> 104 ;
105 [label="avg_blue <= 71.855\ngini = 0.426\nsamples = 188\nvalue = [1, 20, 3, 3, 16, 0, 5, 0, 140]\nclass = Plastic", fillcolor="#ec7290"] ;
103 -> 105 ;
106 [label="gini = 0.382\nsamples = 156\nvalue = [1, 15, 2, 3, 13, 0, 1, 0, 121]\nclass = Plastic", fillcolor="#eb6a8a"] ;
105 -> 106 ;
107 [label="gini = 0.598\nsamples = 32\nvalue = [0, 5, 1, 0, 3, 0, 4, 0, 19]\nclass = Plastic", fillcolor="#f298af"] ;
105 -> 107 ;
108 [label="std_green <= 107.402\ngini = 0.775\nsamples = 237\nvalue = [7, 59, 24, 13, 29, 4, 7, 8, 86]\nclass = Plastic", fillcolor="#fbe1e7"] ;
94 -> 108 ;
109 [label="median_red <= 16.5\ngini = 0.792\nsamples = 221\nvalue = [7, 59, 24, 13, 29, 4, 7, 8, 70]\nclass = Plastic", fillcolor="#fdf2f4"] ;
108 -> 109 ;
110 [label="avg_blue <= 75.059\ngini = 0.844\nsamples = 119\nvalue = [7, 19, 20, 10, 21, 4, 4, 6, 28]\nclass = Plastic", fillcolor="#fdf1f4"] ;
109 -> 110 ;
111 [label="gini = 0.787\nsamples = 31\nvalue = [2, 0, 4, 1, 7, 2, 3, 1, 11]\nclass = Plastic", fillcolor="#fbdee5"] ;
110 -> 111 ;
112 [label="gini = 0.84\nsamples = 88\nvalue = [5, 19, 16, 9, 14, 2, 1, 5, 17]\nclass = Textile Trash", fillcolor="#fefef9"] ;
110 -> 112 ;
113 [label="avg_blue <= 89.122\ngini = 0.667\nsamples = 102\nvalue = [0, 40, 4, 3, 8, 0, 3, 2, 42]\nclass = Plastic", fillcolor="#fef9fa"] ;
109 -> 113 ;
114 [label="gini = 0.658\nsamples = 88\nvalue = [0, 30, 3, 3, 6, 0, 3, 2, 41]\nclass = Plastic", fillcolor="#fad9e2"] ;
113 -> 114 ;
115 [label="gini = 0.459\nsamples = 14\nvalue = [0, 10, 1, 0, 2, 0, 0, 0, 1]\nclass = Textile Trash", fillcolor="#e4ee7b"] ;
113 -> 115 ;
116 [label="gini = 0.0\nsamples = 16\nvalue = [0, 0, 0, 0, 0, 0, 0, 0, 16]\nclass = Plastic", fillcolor="#e53964"] ;
108 -> 116 ;
}